//Numpy array shape [64]
//Min -0.263054460287
//Max 0.290766417980
//Number of zeros 9

#ifndef B2_H_
#define B2_H_

#ifndef ADDWEIGHT
densenn0_dense_bias_t b2[64];
#else
densenn0_dense_bias_t b2[64] = {0.0343606509268283844, 0.0000000000000000000, 0.0086330082267522812, 0.0804424732923507690, 0.0000000000000000000, 0.0503586009144783020, -0.0265153329819440842, 0.0000000000000000000, 0.0185903701931238174, -0.0125219915062189102, -0.0001214282747241668, 0.1306315362453460693, -0.1452335864305496216, 0.0328455977141857147, 0.1268912553787231445, 0.0000000000000000000, 0.0000000000000000000, 0.2233895361423492432, -0.0427005179226398468, -0.0212155934423208237, -0.0934511721134185791, 0.2599908113479614258, 0.0715482160449028015, 0.2595923244953155518, 0.0225626584142446518, -0.1081536337733268738, 0.0000000000000000000, 0.1705783605575561523, 0.1333505809307098389, -0.0047882008366286755, -0.0373497568070888519, -0.0018968724180012941, 0.0000000000000000000, 0.0392607934772968292, -0.0336200483143329620, 0.0452668480575084686, -0.1086607351899147034, -0.0570579506456851959, 0.0481273867189884186, 0.0050784642808139324, -0.0004130685119889677, 0.0000000000000000000, 0.1212512254714965820, 0.2727591395378112793, 0.2907664179801940918, -0.1653087884187698364, -0.0888519883155822754, -0.0401184372603893280, 0.0000000000000000000, 0.0333887003362178802, -0.0082511389628052711, -0.0671888142824172974, 0.0020010117441415787, -0.1382908374071121216, 0.1137484386563301086, -0.0018431495409458876, -0.0562826246023178101, -0.1612120270729064941, 0.2100727409124374390, -0.0443854592740535736, -0.2630544602870941162, -0.0447217524051666260, 0.0022123600356280804, -0.0879848673939704895};
#endif

#endif
