//Numpy array shape [64]
//Min -0.150858983397
//Max 0.239838212729
//Number of zeros 20

#ifndef B2_H_
#define B2_H_

#ifndef __SYNTHESIS__
dense_bias_t b2[64];
#else
dense_bias_t b2[64] = {0.0000000000, 0.0328955017, 0.1690293103, 0.0000000000, 0.0000000000, -0.0397524647, 0.0987511873, 0.1851275861, 0.0151679507, -0.0066167009, 0.0000000000, 0.0215240605, -0.0281475466, 0.0014869341, 0.0000000000, -0.0405104607, 0.0000000000, -0.0060509383, -0.0168685094, 0.0000000000, 0.0820576996, 0.1563114822, 0.0124376826, 0.0000000000, 0.2382452786, -0.0908754021, 0.0000000000, -0.0543139316, 0.0000000000, 0.0297448467, 0.0311087556, 0.0000000000, -0.0789880231, -0.0571110025, 0.0017015191, -0.0045980532, 0.0000000000, 0.0141118513, 0.0307995714, -0.1360310167, -0.0087890318, 0.0000000000, -0.1297918111, -0.0191303976, 0.0061047622, 0.0426144972, -0.0661713257, 0.1483308673, 0.0000000000, -0.0748384744, 0.0323031843, -0.1508589834, 0.0000000000, 0.2398382127, 0.0000000000, -0.0172113124, 0.0000000000, 0.0000000000, 0.0000000000, 0.0693875924, 0.0678866878, -0.1176135018, -0.0152784968, 0.0000000000};
#endif

#endif
