//Numpy array shape [64]
//Min -23.334671020508
//Max 0.260936439037
//Number of zeros 0

#ifndef B4_H_
#define B4_H_

#ifndef __SYNTHESIS__
batch_normalization_bias_t b4[64];
#else
batch_normalization_bias_t b4[64] = {0.2006585598, -9.6662111282, -4.9983649254, -0.0007096800, 0.0710557476, -0.3209063709, -0.9253873825, -12.8626050949, -0.4745008051, 0.0013669898, 0.0008729661, -2.4912106991, -1.0922565460, -23.3346710205, -0.0015892058, -0.6869531870, 0.0540853180, -0.3453334868, 0.0000004271, 0.0001598341, -2.4836196899, -19.0883865356, -1.5764935017, 0.0225402135, -9.2517728806, -2.4420897961, 0.1459599137, -0.3810839653, 0.0006124443, -0.6957790256, -0.6897626519, -0.1584818065, -6.3028001785, -0.8036884665, -0.9895321727, -0.5028762817, 0.0049705314, -0.2562963068, -10.5757827759, -3.0727005005, -0.2482150793, -0.0223400164, -9.4778137207, -19.7325019836, -0.9860579967, -0.4287316203, -1.2528386116, -1.5938664675, -0.0037772600, -5.9885077477, -7.1404280663, -1.2981851101, -0.0026782155, -7.2298903465, -0.0010059460, -7.0441722870, -0.0017258086, 0.2609364390, 0.0918046162, -2.4276418686, -1.7310881615, -3.0433292389, -0.1637585759, 0.0401148833};
#endif

#endif
