//Numpy array shape [64]
//Min -10.364835739136
//Max 0.018407344818
//Number of zeros 0

#ifndef B4_H_
#define B4_H_

#ifndef ADDWEIGHT
batch_normalization_bias_t b4[64];
#else
batch_normalization_bias_t b4[64] = {-1.2169647216796875, 0.0000001873341091, -1.0635595321655273, -3.3656179904937744, -0.0000036044393710, -1.1872880458831787, -0.0065438523888588, 0.0000036747319427, -0.1376919150352478, -0.0524166673421860, -0.0000016273547772, -3.2946901321411133, -3.4607791900634766, -1.0349154472351074, -4.6477446556091309, 0.0000024168009531, 0.0000032161685795, -5.9831681251525879, -3.1766219139099121, -0.1900449991226196, -0.7693204283714294, -9.4811201095581055, -1.3561658859252930, -7.2247519493103027, -1.1997891664505005, 0.0153140900656581, 0.0000005918595321, -0.8485585451126099, -6.6847438812255859, -0.1947855651378632, 0.0031306874006987, 0.0000017628121896, 0.0000067215851232, -1.7772971391677856, -0.2282379269599915, -2.2299757003784180, -0.0345061644911766, -0.0048632472753525, -1.7595462799072266, -0.8047558069229126, -0.0042970813810825, 0.0000014018843331, 0.0004336517304182, -2.6568241119384766, -7.5234975814819336, 0.0184073448181152, 0.0008885683491826, -1.3487842082977295, 0.0000858978382894, -0.9520566463470459, 0.0000007361430221, 0.0000018264613573, -0.1897361278533936, -0.0222600772976875, -3.1497082710266113, -3.4644839763641357, -10.3648357391357422, -0.3070700168609619, -6.0246000289916992, -0.1493283659219742, -1.1252300739288330, -0.0000000894722589, -0.5896785259246826, -1.7243058681488037};
#endif

#endif
