//Numpy array shape [15, 64]
//Min -2.354167699814
//Max 2.261652231216
//Number of zeros 672

#ifndef W2_H_
#define W2_H_

#ifndef ADDWEIGHT
densenn0_dense_weight_t w2[960];
#else
densenn0_dense_weight_t w2[960] = {0.146337077021599, -0.274411946535110, 0.000000000000000, 0.000000000000000, 0.000000000000000, -0.000000000000000, -0.000000000000000, -0.000000000000000, 0.000000000000000, 0.000000000000000, -0.000000000000000, -0.126665115356445, -0.559439182281494, 0.000000000000000, -0.000000000000000, -0.000000000000000, 0.000000000000000, -0.000000000000000, 0.219190120697021, -0.000000000000000, -0.402433425188065, 0.000000000000000, 0.000000000000000, 0.000000000000000, -0.000000000000000, 0.000000000000000, -0.269479125738144, 0.000000000000000, 0.000000000000000, -0.000000000000000, 0.435774534940720, -0.269510954618454, 0.000000000000000, 0.032503958791494, -0.000000000000000, 0.022531596943736, 0.227174401283264, 0.000000000000000, -0.110939212143421, 0.000000000000000, 0.424247384071350, -0.000000000000000, 0.222667336463928, -0.000000000000000, 0.000000000000000, -0.000000000000000, -0.000000000000000, -0.095816619694233, -0.000000000000000, 0.000000000000000, -0.000000000000000, -0.000000000000000, 0.000000000000000, -0.000000000000000, -0.000000000000000, -0.367485314607620, -0.000000000000000, 0.000000000000000, -0.000000000000000, 0.000000000000000, 0.507128357887268, -0.000000000000000, 0.000000000000000, -0.000000000000000, 0.000000000000000, -0.227726772427559, 0.000000000000000, 0.000000000000000, -0.000000000000000, -0.000000000000000, -0.000000000000000, -0.000000000000000, -0.049592018127441, -0.493526697158813, -0.000000000000000, 0.000000000000000, -0.000000000000000, 0.000000000000000, -0.000000000000000, -0.000000000000000, -0.000000000000000, -0.000000000000000, -0.156053751707077, -0.000000000000000, 0.000000000000000, 0.000000000000000, 0.000000000000000, 0.000000000000000, -0.000000000000000, 0.000000000000000, 0.000000000000000, 0.000000000000000, -0.000000000000000, -0.000000000000000, -0.000000000000000, -0.000000000000000, -0.207243382930756, 0.068265631794930, -0.132920399308205, 0.000000000000000, 0.000000000000000, 0.000000000000000, 0.000000000000000, 0.000000000000000, -0.000000000000000, 0.000000000000000, -0.499472439289093, -0.550302326679230, 0.000000000000000, -0.000000000000000, 0.083291560411453, -0.000000000000000, -0.000000000000000, 0.000000000000000, -0.000000000000000, -0.289299964904785, 0.000000000000000, -0.000000000000000, -0.000000000000000, 0.000000000000000, -0.251132637262344, 0.000000000000000, -0.000000000000000, 0.000000000000000, 0.000000000000000, -0.000000000000000, 0.000000000000000, -0.000000000000000, -0.000000000000000, -0.000000000000000, 0.000000000000000, 0.000000000000000, 0.000000000000000, -0.000000000000000, -0.000000000000000, -0.000000000000000, 0.000000000000000, 0.000000000000000, -0.000000000000000, 0.000000000000000, -0.000000000000000, 0.000000000000000, 0.205035939812660, -0.000000000000000, -0.254419863224030, -0.000000000000000, 0.000000000000000, 0.351952940225601, 0.000000000000000, -0.166289448738098, 0.000000000000000, 0.000000000000000, -0.000000000000000, 0.000000000000000, 0.000000000000000, 0.000000000000000, -0.000000000000000, -0.000000000000000, -0.000000000000000, -0.000000000000000, -0.000000000000000, 0.046883039176464, 0.135821282863617, 0.000000000000000, 0.000000000000000, 0.000000000000000, 0.000000000000000, 0.000000000000000, -0.250368654727936, -0.248249188065529, -0.000000000000000, -0.000000000000000, 0.000000000000000, -0.000000000000000, 0.470607280731201, 0.000000000000000, -0.000000000000000, 0.000000000000000, -0.000000000000000, -0.000000000000000, 0.000000000000000, -0.000000000000000, -0.000000000000000, -0.000000000000000, -0.000000000000000, 0.000000000000000, -0.000000000000000, 0.000000000000000, 0.000000000000000, -0.249007642269135, 0.000000000000000, -0.000000000000000, -0.000000000000000, -0.209268629550934, 0.084825903177261, 0.000000000000000, -0.225160509347916, -0.000000000000000, -0.000000000000000, -0.237417951226234, 0.000000000000000, 0.417466849088669, -0.000000000000000, -0.000000000000000, -0.000000000000000, 0.000000000000000, 0.000000000000000, -0.214959844946861, -0.251915931701660, -0.000000000000000, 0.077259883284569, -0.224358633160591, 0.345225214958191, 0.174463897943497, 0.000000000000000, 0.267528861761093, -0.000000000000000, 0.000000000000000, -0.243037015199661, -0.111968100070953, 0.154675275087357, -0.000000000000000, -0.208078995347023, -0.000000000000000, -0.000000000000000, -0.072372213006020, -0.000000000000000, 0.000000000000000, -0.000000000000000, 0.000000000000000, 0.000000000000000, 0.000000000000000, -0.000000000000000, -0.225370436906815, -0.000000000000000, 0.111607961356640, 0.000000000000000, 0.172126010060310, -0.339372694492340, 0.124566860496998, -0.193596735596657, 0.000000000000000, -0.000000000000000, 0.179508596658707, 0.000000000000000, -0.000000000000000, -0.000000000000000, -0.000000000000000, 0.506756424903870, 0.232095047831535, -0.000000000000000, 0.000000000000000, 0.000000000000000, -0.000000000000000, 0.000000000000000, -0.125894859433174, -0.000000000000000, -0.000000000000000, -0.000000000000000, -0.000000000000000, -0.000000000000000, -0.000000000000000, -0.199968785047531, 0.000000000000000, 0.000000000000000, -0.265874773263931, 0.000000000000000, 0.030445622280240, 0.533889889717102, -0.000000000000000, -0.000000000000000, -0.000000000000000, -0.219438791275024, 0.170612260699272, 0.093668818473816, -0.893482744693756, 0.000000000000000, 0.076187200844288, -0.000000000000000, -0.000000000000000, -0.000000000000000, -0.000000000000000, -0.000000000000000, 0.000000000000000, 0.000000000000000, -0.000000000000000, -0.000000000000000, -0.000000000000000, -0.000000000000000, -0.000000000000000, 0.000000000000000, -0.000000000000000, -0.000000000000000, 0.000000000000000, 0.068451851606369, 0.000000000000000, -0.138674259185791, 0.000000000000000, -0.000000000000000, 0.000000000000000, -0.000000000000000, -0.208837985992432, -0.244063794612885, 0.000000000000000, -0.000000000000000, 0.011159508489072, -0.226047724485397, -0.000000000000000, 0.000000000000000, -0.000000000000000, 0.025011101737618, 0.320431202650070, 0.217515721917152, -0.000000000000000, 0.000000000000000, 0.012236752547324, 0.172700464725494, -0.000000000000000, 0.006726997904480, 0.245654314756393, -0.000000000000000, 0.000000000000000, -0.260196089744568, 0.000000000000000, -0.000000000000000, 0.233436554670334, -0.000000000000000, -0.220970720052719, 0.000000000000000, 0.242406100034714, 0.253812819719315, -0.000000000000000, -0.000000000000000, -0.000000000000000, -0.195760354399681, -0.000000000000000, -0.000000000000000, 0.000000000000000, 0.000000000000000, 0.000000000000000, -0.000000000000000, -0.000000000000000, 0.000000000000000, -0.271161317825317, 0.000000000000000, -0.000000000000000, -0.230816051363945, 0.000000000000000, 0.000000000000000, -0.224931120872498, 0.000000000000000, -0.000000000000000, -0.239577814936638, 0.000000000000000, 0.243849486112595, 0.249557226896286, -0.000000000000000, 0.211762100458145, -0.000000000000000, -0.000000000000000, 0.275580734014511, 0.000000000000000, 0.000000000000000, 0.000000000000000, 0.000000000000000, -0.000000000000000, -0.000000000000000, -0.000000000000000, 0.000000000000000, 0.000000000000000, 0.000000000000000, 0.000000000000000, 0.226042002439499, -0.000000000000000, -0.000000000000000, 0.000000000000000, -0.000000000000000, 0.000000000000000, -0.000000000000000, 0.000000000000000, 0.240775316953659, 0.000000000000000, -0.000000000000000, -0.000000000000000, 0.000000000000000, -0.275219351053238, 0.000000000000000, 0.000000000000000, -0.269286662340164, -1.013821363449097, 1.753919959068298, 0.000000000000000, 0.000000000000000, 0.000000000000000, 0.000000000000000, 0.000000000000000, -0.000000000000000, 0.000000000000000, 0.000000000000000, 0.000000000000000, 0.000000000000000, -0.000000000000000, 0.000000000000000, -0.000000000000000, 0.000000000000000, 0.000000000000000, 0.000000000000000, 0.000000000000000, 0.000000000000000, 0.280552417039871, 0.270242482423782, 0.911136627197266, -0.542253315448761, -2.354167699813843, 0.000000000000000, -0.000000000000000, -0.000000000000000, -0.273144483566284, 0.952924907207489, -0.000000000000000, 0.000000000000000, 2.261652231216431, -1.974189996719360, 0.000000000000000, -0.000000000000000, 0.000000000000000, -0.000000000000000, -0.000000000000000, 0.000000000000000, -2.282690048217773, -0.249989345669746, 0.000000000000000, 0.229276150465012, 0.000000000000000, -0.197991862893105, 0.000000000000000, 0.135992079973221, 0.696163356304169, -0.000000000000000, 0.000000000000000, 0.000000000000000, -0.000000000000000, -0.000000000000000, 0.000000000000000, 0.000000000000000, 0.000000000000000, 0.000000000000000, 0.000000000000000, 0.000000000000000, 0.202900260686874, 0.395991384983063, 0.000000000000000, 0.000000000000000, -0.000000000000000, -0.000000000000000, 0.000000000000000, 0.000000000000000, 0.000000000000000, 0.000000000000000, 0.000000000000000, 0.000000000000000, -0.148450493812561, 0.000000000000000, 0.255925208330154, -0.000000000000000, -0.000000000000000, 0.000000000000000, -0.000000000000000, 0.000000000000000, 0.000000000000000, 0.200430661439896, 0.000000000000000, 0.000000000000000, 0.293754100799561, -0.000000000000000, -0.000000000000000, -0.000000000000000, 0.000000000000000, 0.982228219509125, -0.226156964898109, -0.000000000000000, 0.000000000000000, -0.000000000000000, -0.000000000000000, 0.000000000000000, 0.000000000000000, 0.682694613933563, 0.000000000000000, -0.000000000000000, 0.000000000000000, -0.495722323656082, -0.000000000000000, 0.000000000000000, 0.000000000000000, 0.000000000000000, 0.000000000000000, -0.000000000000000, 0.000000000000000, 0.000000000000000, 0.000000000000000, -0.000000000000000, 0.000000000000000, -0.000000000000000, 0.000000000000000, 0.000000000000000, -0.000000000000000, 0.667296588420868, 1.659437179565430, -0.033525776118040, 0.000000000000000, 0.000000000000000, 0.402014553546906, 0.000000000000000, -0.000000000000000, -0.217247888445854, 0.000000000000000, -0.000000000000000, 0.430161595344543, -0.000000000000000, -0.000000000000000, -0.003515068208799, 0.000000000000000, 0.000000000000000, 0.384371370077133, -0.000000000000000, 0.000000000000000, 0.000000000000000, -0.215150654315948, 0.000000000000000, -0.000000000000000, 0.000000000000000, -0.000000000000000, 0.000000000000000, 0.000000000000000, 0.000000000000000, -0.651995241641998, 0.000000000000000, -0.688721060752869, -0.000000000000000, -0.000000000000000, -0.000000000000000, 0.000000000000000, -0.494984656572342, -0.194755449891090, 0.000000000000000, 0.000000000000000, -0.149101272225380, -0.029941581189632, 0.000000000000000, 0.296303331851959, 0.000000000000000, 0.000000000000000, 0.218117371201515, 0.000000000000000, -0.000000000000000, -0.000000000000000, 0.000000000000000, 0.423882961273193, 0.000000000000000, 0.000000000000000, -0.205149292945862, -0.910630583763123, 0.000000000000000, 0.000000000000000, -0.000000000000000, 0.000000000000000, -0.000000000000000, 0.000000000000000, -0.252185940742493, -0.000000000000000, 0.240506067872047, 0.000000000000000, -0.000000000000000, 0.189760953187943, 0.000000000000000, 0.000000000000000, 0.000000000000000, 0.000000000000000, 0.000000000000000, 0.057753179222345, -0.000000000000000, -0.000000000000000, -0.000000000000000, -0.000000000000000, -0.000000000000000, 0.068968743085861, 0.000000000000000, 0.000000000000000, -0.000000000000000, -0.050186384469271, -0.315098315477371, 0.209399580955505, -0.000000000000000, 0.000000000000000, 0.000000000000000, -0.000000000000000, 0.257687926292419, 0.000000000000000, -0.000000000000000, 0.000000000000000, 0.025424575433135, 0.114054203033447, -0.000000000000000, 1.154372215270996, -0.000000000000000, 0.000000000000000, -0.000000000000000, -0.000000000000000, -0.000000000000000, 0.000000000000000, 0.414117962121964, -0.000000000000000, -0.056776326149702, 0.000000000000000, -0.000000000000000, -0.294792711734772, -0.176919683814049, -0.000000000000000, 0.154476821422577, -0.000000000000000, 0.117824211716652, -0.000000000000000, 0.195216566324234, 0.000000000000000, 0.199974238872528, 0.000000000000000, 0.202432930469513, 0.000000000000000, 0.007228913251311, -0.468108505010605, -0.000000000000000, 0.000000000000000, 0.000000000000000, -0.000000000000000, -0.182576924562454, -0.000000000000000, -0.000000000000000, -0.000000000000000, -0.000000000000000, 0.000000000000000, -1.194330453872681, -0.000000000000000, 0.000000000000000, -0.000000000000000, -0.000000000000000, 0.204982653260231, -0.266311526298523, -0.000000000000000, 0.427907019853592, 0.000000000000000, -0.000000000000000, 0.000000000000000, -0.000000000000000, 0.939971745014191, 0.274492621421814, -0.000000000000000, 0.227619916200638, 0.000000000000000, -1.445535421371460, 1.691682100296021, -0.146337732672691, -0.000000000000000, 0.000000000000000, -0.497333317995071, -0.312823683023453, 0.000000000000000, 0.000000000000000, 0.000000000000000, -0.000000000000000, 1.244446277618408, -0.044487066566944, -0.000000000000000, 0.252846032381058, -1.328980803489685, 1.343621253967285, -0.000000000000000, 0.156415507197380, 0.000000000000000, 0.000000000000000, 1.594774246215820, -0.049178846180439, -0.000000000000000, 0.000000000000000, -0.000000000000000, 0.000000000000000, -1.083176255226135, -0.000000000000000, 0.329362273216248, 0.000000000000000, 0.226472735404968, -0.000000000000000, -0.000000000000000, -0.870185434818268, -0.000000000000000, -0.000000000000000, -0.000000000000000, 0.000000000000000, -0.000000000000000, 0.000000000000000, -0.000000000000000, 0.000000000000000, -0.000000000000000, 1.189811110496521, 0.888378202915192, -0.000000000000000, 0.000000000000000, -0.912475764751434, 1.045447349548340, -0.274479776620865, -0.000000000000000, -0.000000000000000, 0.000000000000000, 0.000000000000000, 0.000000000000000, -0.000000000000000, 0.000000000000000, 0.000000000000000, 0.000000000000000, 0.000000000000000, -0.254243165254593, 0.000000000000000, 0.000000000000000, 0.996338844299316, -0.000000000000000, -1.610704183578491, 0.943240165710449, -0.000000000000000, -0.000000000000000, 0.000000000000000, 0.000000000000000, -0.272338867187500, 0.000000000000000, 0.246776819229126, 0.000000000000000, -0.000000000000000, -0.000000000000000, -0.000000000000000, 0.995223104953766, -0.000000000000000, -0.000000000000000, 1.382380485534668, 0.264600992202759, 0.000000000000000, 0.000000000000000, -0.341640889644623, 0.000000000000000, -0.051329992711544, -0.000000000000000, -0.800361990928650, 0.426247298717499, -0.127342015504837, 0.000000000000000, -0.000000000000000, 0.000000000000000, -0.000000000000000, 0.000000000000000, 1.284416556358337, 0.207841128110886, 0.134829029440880, 0.000000000000000, 0.000000000000000, -0.000000000000000, 0.000000000000000, -0.000000000000000, 0.000000000000000, -0.000000000000000, -0.775714635848999, 0.000000000000000, -0.000000000000000, -0.239823430776596, 0.000000000000000, -0.000000000000000, -0.000000000000000, -0.413455635309219, -0.000000000000000, 0.000000000000000, -0.020765095949173, -0.675577580928802, 0.000000000000000, 0.523374259471893, 0.000000000000000, -0.937746644020081, 0.000000000000000, -0.000000000000000, 0.264215856790543, 0.000000000000000, -0.000000000000000, -0.515915572643280, 0.000000000000000, 0.000000000000000, 0.189563691616058, 0.000000000000000, 0.618870317935944, 0.000000000000000, -0.000000000000000, 0.000000000000000, -0.000000000000000, -0.907676219940186, 0.802081584930420, -0.000000000000000, -0.000000000000000, 0.000000000000000, -1.215227723121643, -0.000000000000000, -0.000000000000000, 0.000000000000000, -0.395690649747849, 0.000000000000000, -0.177449792623520, 0.000000000000000, -0.000000000000000, -0.000000000000000, 0.000000000000000, -0.000000000000000, -0.175440952181816, -0.753761827945709, -0.000000000000000, 0.000000000000000, -0.000000000000000, 0.000000000000000, -0.430608272552490, 0.705720543861389, 0.282380074262619, 0.000000000000000, 0.000000000000000, -0.000000000000000, -0.000000000000000, -0.000000000000000, 0.000000000000000, 0.177229449152946, -0.274005472660065, 0.000000000000000, -0.000000000000000, 0.000000000000000, 0.000000000000000, -0.000000000000000, 0.000000000000000, -0.000000000000000, -0.406959086656570, -0.000000000000000, -1.219744324684143, 0.806872308254242, -0.000000000000000, 0.000000000000000, 0.000000000000000, 0.000000000000000, 0.000000000000000, 0.000000000000000, -0.000000000000000, -0.464091658592224, -0.000000000000000, 0.239900171756744, 0.103596493601799, -0.162109956145287, -0.000000000000000, -0.000000000000000, 0.000000000000000, 0.106885880231857, -0.000000000000000, 0.000000000000000, 0.135102525353432, -0.088473491370678, -0.000000000000000, -0.000000000000000, -0.234347328543663, 0.031221386045218, -0.317815631628036, 0.769527435302734, -0.568850934505463, 0.000000000000000, 0.000000000000000, 0.193206578493118, 0.000000000000000, 0.000000000000000, -0.016045175492764, -0.000000000000000, -0.000000000000000, -0.163992434740067, -0.000000000000000, 0.000000000000000, -0.000000000000000, 0.000000000000000, -0.000000000000000, 0.000000000000000, 0.000000000000000, -0.000000000000000, -0.958899259567261, 0.000000000000000, 0.000000000000000, -0.000000000000000, -0.000000000000000, -0.140502840280533, 0.000000000000000, 0.208107426762581, -0.000000000000000, 0.000000000000000, -0.000000000000000, -0.000000000000000, 0.000000000000000, -0.000000000000000, 0.274258226156235, -0.000000000000000, -0.000000000000000, 0.000000000000000, 0.809368669986725, 0.000000000000000, -0.000000000000000, 0.000000000000000, 0.000000000000000, -0.038858033716679, 0.000000000000000, 0.260818868875504, -0.000000000000000, 0.000000000000000, -0.000000000000000, -0.000000000000000, -0.188971191644669, 0.000000000000000, -0.607265770435333, 0.000000000000000, 0.000000000000000, -0.000000000000000, -0.220662295818329, 0.268251508474350, -0.000000000000000, -0.524483978748322, -0.000000000000000, -0.000000000000000, 0.000000000000000, 0.000000000000000, -1.005962491035461, -0.000000000000000, -0.354807704687119, 0.000000000000000, 0.000000000000000, 0.000000000000000, 1.338265776634216, -0.000000000000000, -0.038512956351042, 0.662663221359253, -0.000000000000000, 0.000000000000000, 0.000000000000000, 0.614601135253906, 0.000000000000000, 0.000000000000000, 0.201348215341568, -0.014393256045878, 0.000000000000000, -0.039319347590208, -0.043802388012409, 0.000000000000000, 0.000000000000000, -0.000000000000000, -0.000000000000000, -0.000000000000000, 0.000000000000000, -0.234301418066025, -0.000000000000000, 0.000000000000000};
#endif

#endif
