//Numpy array shape [64, 32]
//Min -1.068632602692
//Max 1.202732682228
//Number of zeros 1434

#ifndef W5_H_
#define W5_H_

#ifndef __SYNTHESIS__
densenn2_dense_weight_t w5[2048];
#else
densenn2_dense_weight_t w5[2048] = {-0.000000000000000000, -0.223510503768920898, 0.229196533560752869, 0.223794609308242798, 0.179527401924133301, -0.000000000000000000, 0.000000000000000000, -0.000000000000000000, 0.000000000000000000, 0.214391425251960754, 0.000000000000000000, -0.000000000000000000, 0.174162521958351135, -0.197774901986122131, -0.000000000000000000, -0.000000000000000000, -0.200341239571571350, -0.000000000000000000, -0.228908374905586243, -0.000000000000000000, 0.000000000000000000, -0.224386870861053467, 0.000000000000000000, 0.000000000000000000, 0.203983396291732788, 0.000000000000000000, -0.000000000000000000, 0.000000000000000000, 0.182782679796218872, -0.000000000000000000, -0.222172886133193970, -0.350301176309585571, 0.000000000000000000, 0.229243844747543335, -0.000000000000000000, 0.000000000000000000, 0.000000000000000000, -0.000000000000000000, -0.000000000000000000, 0.000000000000000000, 0.000000000000000000, -0.194792345166206360, -0.000000000000000000, 0.000000000000000000, 0.000000000000000000, -0.000000000000000000, -0.000000000000000000, -0.000000000000000000, 0.000000000000000000, 0.000000000000000000, 0.000000000000000000, 0.000000000000000000, 0.170358657836914062, -0.000000000000000000, -0.000000000000000000, 0.000000000000000000, 0.227032780647277832, -0.000000000000000000, 0.207857042551040649, 0.000000000000000000, -0.226788461208343506, 0.000000000000000000, 0.232699483633041382, 0.000000000000000000, -0.251753926277160645, 0.220997765660285950, -0.000000000000000000, 0.000000000000000000, -0.246319890022277832, 0.000000000000000000, 0.000000000000000000, 0.233497127890586853, 0.076598756015300751, -0.000000000000000000, 0.000000000000000000, -0.328354626893997192, 0.236764430999755859, -0.192203179001808167, -0.000000000000000000, -0.000000000000000000, 0.204804420471191406, -0.000000000000000000, 0.000000000000000000, -0.000000000000000000, -0.000000000000000000, 0.000000000000000000, 0.000000000000000000, 0.000000000000000000, 0.000000000000000000, -0.189084082841873169, -0.000000000000000000, -0.000000000000000000, 0.000000000000000000, 0.334361284971237183, 0.197092100977897644, -0.000000000000000000, -0.223541706800460815, -0.000000000000000000, 0.000000000000000000, -0.000000000000000000, -0.000000000000000000, 0.000000000000000000, -0.000000000000000000, -0.250381350517272949, -0.000000000000000000, -0.000000000000000000, 0.000000000000000000, -0.000000000000000000, -0.000000000000000000, -0.000000000000000000, 0.000000000000000000, 0.000000000000000000, -0.000000000000000000, -0.458873808383941650, 0.194463968276977539, -0.237608715891838074, -0.252355426549911499, -0.000000000000000000, -0.000000000000000000, 0.000000000000000000, -0.231805354356765747, 0.000000000000000000, -0.000000000000000000, 0.000000000000000000, 0.180108994245529175, 0.000000000000000000, -0.000000000000000000, 0.000000000000000000, 0.000000000000000000, 0.000000000000000000, -0.224119096994400024, 0.000000000000000000, 0.000000000000000000, 0.000000000000000000, 0.000000000000000000, 0.238761499524116516, -0.000000000000000000, -0.173851490020751953, 0.000000000000000000, -0.000000000000000000, 0.000000000000000000, -0.000000000000000000, 0.000000000000000000, 0.000000000000000000, 0.000000000000000000, -0.000000000000000000, 0.000000000000000000, -0.198077052831649780, -0.000000000000000000, -0.184497296810150146, -0.218915984034538269, -0.208658248186111450, 0.237269684672355652, -0.000000000000000000, 0.000000000000000000, -0.189578026533126831, 0.194774016737937927, -0.000000000000000000, 0.000000000000000000, -0.000000000000000000, 0.000000000000000000, -0.000000000000000000, -0.000000000000000000, -0.000000000000000000, -0.000000000000000000, -0.000000000000000000, 0.565875828266143799, 0.233444571495056152, -0.000000000000000000, -0.000000000000000000, 0.000000000000000000, 0.079144194722175598, 0.000000000000000000, -0.183223888278007507, 0.000000000000000000, 0.000000000000000000, 0.227892443537712097, -0.000000000000000000, 0.231213077902793884, 0.000000000000000000, -0.000000000000000000, -0.000000000000000000, -0.000000000000000000, 0.212940454483032227, 0.000000000000000000, 0.000000000000000000, 0.000000000000000000, -0.000000000000000000, -0.186266303062438965, -0.000000000000000000, 0.000000000000000000, -0.000000000000000000, -0.211225360631942749, 0.000000000000000000, -0.173138603568077087, 0.000000000000000000, 0.000000000000000000, 0.834561228752136230, -0.159669309854507446, 0.000000000000000000, 0.129151418805122375, -0.181334882974624634, 1.202732682228088379, -0.654606699943542480, 0.000000000000000000, -0.000000000000000000, 0.175548151135444641, -0.247213572263717651, -0.000000000000000000, 0.063317440450191498, -0.182072401046752930, 0.221622616052627563, 0.227160811424255371, 0.225909233093261719, -0.000000000000000000, 0.000000000000000000, 0.172513425350189209, 0.207453370094299316, 0.000000000000000000, 0.000000000000000000, -0.000000000000000000, 0.493581444025039673, 0.000000000000000000, 0.204998433589935303, -0.184404239058494568, 0.208891540765762329, -0.000000000000000000, -0.179851323366165161, 0.000000000000000000, -0.000000000000000000, -0.000000000000000000, 0.190246447920799255, 0.000000000000000000, -0.217229694128036499, -0.000000000000000000, 0.000000000000000000, 0.000000000000000000, -0.000000000000000000, -0.000000000000000000, -0.000000000000000000, -0.257676512002944946, 0.000000000000000000, 0.000000000000000000, 0.000000000000000000, -0.000000000000000000, 0.188362091779708862, -0.000000000000000000, 0.000000000000000000, -0.214856684207916260, -0.000000000000000000, 0.000000000000000000, 0.000000000000000000, -0.000000000000000000, 0.000000000000000000, 0.000000000000000000, 0.000000000000000000, -0.000000000000000000, -0.000000000000000000, 0.000000000000000000, -0.000000000000000000, -0.000000000000000000, 0.025831276550889015, -0.000000000000000000, -0.000000000000000000, -0.228429317474365234, 0.175761267542839050, 0.000000000000000000, -0.388351231813430786, 0.000000000000000000, 0.238137751817703247, -0.012233576737344265, 0.000000000000000000, 0.178780511021614075, -0.039295386523008347, 0.000000000000000000, 0.000000000000000000, 0.000000000000000000, -0.000000000000000000, -0.000000000000000000, -0.000000000000000000, -0.000000000000000000, 0.000000000000000000, 0.191312313079833984, -0.000000000000000000, 0.219623863697052002, -0.087391443550586700, 0.000000000000000000, -0.167154267430305481, -0.184348985552787781, -0.000000000000000000, 0.188614025712013245, -0.000000000000000000, -0.000000000000000000, -0.562277734279632568, -0.512291193008422852, -0.000000000000000000, -0.297799408435821533, -0.000000000000000000, 0.000000000000000000, 0.027691038325428963, -0.000000000000000000, 0.228628888726234436, 0.000000000000000000, -0.000000000000000000, 0.000000000000000000, -0.000000000000000000, -0.000000000000000000, 0.000000000000000000, 0.000000000000000000, -0.000000000000000000, 0.000000000000000000, 0.231186538934707642, -0.000000000000000000, 0.000000000000000000, -0.174793452024459839, 0.000000000000000000, -0.000000000000000000, -0.000000000000000000, -0.000000000000000000, -0.000000000000000000, 0.000000000000000000, 0.000000000000000000, 0.000000000000000000, -0.000000000000000000, 0.000000000000000000, 0.000000000000000000, 0.000000000000000000, -0.180461287498474121, -0.000000000000000000, -0.000000000000000000, 0.000000000000000000, -0.000000000000000000, -0.000000000000000000, 0.206109300255775452, 0.000000000000000000, 0.000000000000000000, 0.000000000000000000, -0.000000000000000000, -0.000000000000000000, 0.000000000000000000, -0.220900237560272217, -0.227936670184135437, -0.000000000000000000, -0.000000000000000000, -0.000000000000000000, 0.000000000000000000, -0.000000000000000000, -0.000000000000000000, -0.000000000000000000, -0.000000000000000000, -0.000000000000000000, -0.000000000000000000, -0.182226702570915222, -0.000000000000000000, -0.247996389865875244, 0.000000000000000000, 0.231984511017799377, -0.084644481539726257, -0.563830316066741943, 0.200206920504570007, -0.000000000000000000, 0.227687209844589233, 0.000000000000000000, -0.000000000000000000, 0.000000000000000000, -0.000000000000000000, 0.207103163003921509, 0.000000000000000000, -0.000000000000000000, 0.060741335153579712, 0.000000000000000000, -0.000000000000000000, 0.184739902615547180, 0.000000000000000000, 0.000000000000000000, 0.000000000000000000, 0.215808570384979248, 0.000000000000000000, -0.231120258569717407, 0.000000000000000000, -0.174356326460838318, 0.460148751735687256, 0.000000000000000000, -0.269520580768585205, 0.000000000000000000, -0.233534187078475952, -0.000000000000000000, 0.000000000000000000, -0.000000000000000000, -0.000000000000000000, 0.000000000000000000, 0.235462278127670288, 0.237419128417968750, 0.211587667465209961, 0.223887205123901367, 0.000000000000000000, 0.206372097134590149, -0.000000000000000000, -0.000000000000000000, -0.000000000000000000, 0.228834271430969238, 0.000000000000000000, 0.000000000000000000, -0.000000000000000000, -0.000000000000000000, 0.000000000000000000, -0.000000000000000000, 0.000000000000000000, 0.000000000000000000, 0.000000000000000000, 0.000000000000000000, -0.206282198429107666, 0.000000000000000000, 0.354693651199340820, 0.000000000000000000, 0.000000000000000000, -0.000000000000000000, -0.000000000000000000, 0.245620444416999817, 0.221960499882698059, -0.000000000000000000, -0.388803839683532715, -0.211659148335456848, -0.000000000000000000, 0.232279717922210693, -0.000000000000000000, -0.000000000000000000, 0.000000000000000000, -0.000000000000000000, 0.204434737563133240, 0.698750674724578857, 0.350965857505798340, 0.000000000000000000, -0.000000000000000000, 0.000000000000000000, 0.000000000000000000, 0.000000000000000000, -0.000000000000000000, -0.000000000000000000, -0.000000000000000000, -0.000000000000000000, 0.000000000000000000, -0.246728390455245972, -0.000000000000000000, -0.000000000000000000, 0.000000000000000000, -0.238436073064804077, -0.000000000000000000, -0.000000000000000000, -0.184968516230583191, -0.222012728452682495, -0.249882236123085022, 0.000000000000000000, 0.000000000000000000, 0.000000000000000000, 0.000000000000000000, 0.000000000000000000, -0.000000000000000000, -0.000000000000000000, -0.415599137544631958, -0.240248709917068481, 0.210911497473716736, 0.000000000000000000, -0.000000000000000000, -0.209494322538375854, -0.000000000000000000, -0.000000000000000000, 0.212156221270561218, 0.000000000000000000, -0.000000000000000000, 0.000000000000000000, 0.180290222167968750, -0.000000000000000000, -0.000000000000000000, -0.000000000000000000, 0.000000000000000000, -0.000000000000000000, -0.000000000000000000, -0.000000000000000000, 0.243786737322807312, -0.000000000000000000, 0.209180310368537903, 0.000000000000000000, -0.000000000000000000, -0.000000000000000000, -0.000000000000000000, -0.000000000000000000, -0.000000000000000000, 0.000000000000000000, 0.000000000000000000, -0.000000000000000000, 0.000000000000000000, -0.000000000000000000, 0.000000000000000000, -0.000000000000000000, -0.000000000000000000, 0.000000000000000000, 0.000000000000000000, 0.245663702487945557, 0.190833866596221924, 0.174661457538604736, 0.000000000000000000, 0.000000000000000000, -0.000000000000000000, 0.172709196805953979, 0.000000000000000000, 0.187074124813079834, -0.247174113988876343, 0.000000000000000000, 0.000000000000000000, -0.000000000000000000, 0.000000000000000000, 0.000000000000000000, 0.000000000000000000, -0.241579055786132812, -0.197296485304832458, 0.000000000000000000, -0.000000000000000000, -0.000000000000000000, 0.000000000000000000, 0.000000000000000000, -0.000000000000000000, -0.000000000000000000, 0.000000000000000000, 0.000000000000000000, -0.252533048391342163, -0.000000000000000000, -0.000000000000000000, 0.176249116659164429, 0.000000000000000000, 0.000000000000000000, 0.000000000000000000, -0.000000000000000000, -0.210034489631652832, -0.000000000000000000, 0.000000000000000000, 0.000000000000000000, -0.000000000000000000, 0.000000000000000000, 0.000000000000000000, -0.000000000000000000, 0.000000000000000000, 0.216692104935646057, 0.000000000000000000, 0.000000000000000000, -0.000000000000000000, 0.184736356139183044, -0.000000000000000000, 0.000000000000000000, -0.000000000000000000, 0.000000000000000000, -0.000000000000000000, -0.000000000000000000, 0.000000000000000000, -0.000000000000000000, 0.000000000000000000, 0.000000000000000000, 0.000000000000000000, -0.000000000000000000, -0.000000000000000000, -0.000000000000000000, 0.000000000000000000, 0.000000000000000000, -0.000000000000000000, 0.000000000000000000, 0.000000000000000000, -0.000000000000000000, 0.214141383767127991, 0.000000000000000000, -0.000000000000000000, 0.187422379851341248, -0.203116640448570251, 0.000000000000000000, 0.398212134838104248, 0.000000000000000000, 0.000000000000000000, 0.000000000000000000, -0.000000000000000000, 0.220767557621002197, 0.195606097579002380, -0.000000000000000000, -0.000000000000000000, -0.000000000000000000, 0.197832360863685608, 0.000000000000000000, -0.000000000000000000, 0.074797183275222778, 0.000000000000000000, -0.000000000000000000, 0.227078646421432495, 0.064731717109680176, -0.000000000000000000, -0.000000000000000000, -0.719872474670410156, -0.185542061924934387, -0.000000000000000000, 0.000000000000000000, 0.000000000000000000, 0.214630052447319031, 0.000000000000000000, -0.000000000000000000, 0.000000000000000000, 0.227135464549064636, 0.000000000000000000, 0.260374963283538818, 0.000000000000000000, -0.000000000000000000, 0.000000000000000000, 0.000000000000000000, 0.000000000000000000, -0.000000000000000000, 0.000000000000000000, 0.000000000000000000, 0.000000000000000000, 0.602224349975585938, 0.000000000000000000, -0.092952527105808258, -0.000000000000000000, 0.000000000000000000, -0.000000000000000000, 0.000000000000000000, 0.220018953084945679, 0.000000000000000000, 0.000000000000000000, 0.212640792131423950, 0.000000000000000000, 0.194337040185928345, 0.210367262363433838, -0.000000000000000000, -0.000000000000000000, -0.213971883058547974, 0.000000000000000000, 0.000000000000000000, -0.000000000000000000, 0.000000000000000000, 0.000000000000000000, -0.000000000000000000, -0.000000000000000000, 0.000000000000000000, -0.000000000000000000, 0.000000000000000000, -0.000000000000000000, -0.190006896853446960, 0.226260766386985779, -0.000000000000000000, 0.040979735553264618, 0.000000000000000000, -0.000000000000000000, 0.000000000000000000, 0.198813572525978088, -0.237962439656257629, -0.567118525505065918, 0.000000000000000000, -0.000000000000000000, -0.000000000000000000, -0.000000000000000000, -0.000000000000000000, -0.009451916441321373, -0.000000000000000000, 0.000000000000000000, 0.185783252120018005, -0.198264747858047485, -0.000000000000000000, 0.000000000000000000, -0.231213063001632690, 0.244530171155929565, 0.000000000000000000, 0.000000000000000000, -0.000000000000000000, -0.000000000000000000, -0.181000366806983948, -0.000000000000000000, 0.000000000000000000, -0.000000000000000000, 0.000000000000000000, -0.184580251574516296, 0.000000000000000000, -0.000000000000000000, -0.122090533375740051, -0.000000000000000000, -0.000000000000000000, 0.000000000000000000, 0.362965583801269531, 0.000000000000000000, -0.197402834892272949, 0.000000000000000000, 0.000000000000000000, 0.000000000000000000, 0.226385384798049927, 0.000000000000000000, 0.000000000000000000, -0.000000000000000000, 0.000000000000000000, -0.198476776480674744, -0.000000000000000000, 0.207365870475769043, 0.242337778210639954, -0.000000000000000000, -0.000000000000000000, -0.000000000000000000, 0.000000000000000000, 0.000000000000000000, -0.000000000000000000, -0.169821560382843018, 0.241723611950874329, 0.205963581800460815, 0.000000000000000000, -0.000000000000000000, 0.262569785118103027, -0.000000000000000000, 0.000000000000000000, 0.000000000000000000, 0.000000000000000000, 0.224806159734725952, -0.000000000000000000, -0.000000000000000000, -0.000000000000000000, -0.000000000000000000, 0.000000000000000000, -0.000000000000000000, 0.000000000000000000, -0.228972300887107849, 0.200188323855400085, 0.000000000000000000, -0.000000000000000000, -0.000000000000000000, -0.000000000000000000, -0.000000000000000000, 0.000000000000000000, -0.206856936216354370, 0.000000000000000000, 0.000000000000000000, -0.000000000000000000, -0.000000000000000000, 0.000000000000000000, -0.375367403030395508, 0.000000000000000000, -0.000000000000000000, -0.194403961300849915, -0.000000000000000000, 0.000000000000000000, 0.000000000000000000, 0.000000000000000000, -0.000000000000000000, 0.000000000000000000, -0.000000000000000000, -0.000000000000000000, 0.000000000000000000, -0.000000000000000000, -0.192936167120933533, -0.000000000000000000, 0.235390856862068176, -0.000000000000000000, 0.133898615837097168, -0.179341390728950500, 0.000000000000000000, 0.190436795353889465, -0.000000000000000000, -0.186197847127914429, -0.000000000000000000, -0.184930697083473206, 0.000000000000000000, -0.000000000000000000, 0.000000000000000000, -0.000000000000000000, -0.288643866777420044, -0.000000000000000000, -0.000000000000000000, 0.000000000000000000, 0.000000000000000000, -0.000000000000000000, 0.000000000000000000, 0.000000000000000000, 0.614560782909393311, -0.000000000000000000, 0.000000000000000000, -0.206858351826667786, -0.000000000000000000, 0.000000000000000000, -0.000000000000000000, -0.215182185173034668, -0.000000000000000000, 0.000000000000000000, 0.623866021633148193, 0.000000000000000000, 0.221679821610450745, 0.172000110149383545, -0.175283357501029968, 0.175557449460029602, -0.000000000000000000, -0.000000000000000000, 0.000000000000000000, 0.000000000000000000, 0.189793109893798828, -0.177483454346656799, 0.000000000000000000, 0.220398709177970886, 0.000000000000000000, 0.000000000000000000, 0.000000000000000000, -0.000000000000000000, -0.000000000000000000, -0.201082110404968262, -0.000000000000000000, -0.000000000000000000, 1.103953719139099121, -0.138730451464653015, 0.213951900601387024, -0.000000000000000000, 0.000000000000000000, -0.000000000000000000, 0.275277882814407349, -0.197342112660408020, -0.219045504927635193, 0.100927278399467468, -0.076406627893447876, -0.000000000000000000, 0.000000000000000000, -0.000000000000000000, -0.256193071603775024, 0.000000000000000000, 0.000000000000000000, 0.249976783990859985, -0.000000000000000000, 0.234204202890396118, 0.000000000000000000, -0.000000000000000000, -0.000000000000000000, 0.231361806392669678, 0.000000000000000000, 0.236017182469367981, 0.268863052129745483, -0.000000000000000000, 0.211284190416336060, 0.000000000000000000, -0.000000000000000000, 0.199900031089782715, -0.000000000000000000, -0.000000000000000000, -0.000000000000000000, 0.000000000000000000, -0.220650658011436462, -0.000000000000000000, 0.000000000000000000, -0.000000000000000000, 0.000000000000000000, -0.000000000000000000, -0.000000000000000000, -0.000000000000000000, 0.000000000000000000, -0.000000000000000000, -0.000000000000000000, 0.000000000000000000, -0.222421824932098389, 0.203178435564041138, -0.000000000000000000, 0.229713290929794312, -0.207240462303161621, -0.000000000000000000, -0.000000000000000000, -0.188760057091712952, 0.000000000000000000, 0.208143576979637146, 0.000000000000000000, 0.000000000000000000, -0.000000000000000000, 0.000000000000000000, -0.000000000000000000, 0.199399828910827637, -0.000000000000000000, -0.000000000000000000, -0.000000000000000000, -0.000000000000000000, -0.000000000000000000, 0.000000000000000000, -0.000000000000000000, -0.214692458510398865, 0.000000000000000000, 0.000000000000000000, 0.000000000000000000, 0.000000000000000000, 0.000000000000000000, -0.000000000000000000, 0.199022576212882996, 0.000000000000000000, 0.000000000000000000, 0.000000000000000000, -0.256639420986175537, -0.000000000000000000, 0.190626323223114014, -0.000000000000000000, 0.000000000000000000, 0.191225141286849976, -0.000000000000000000, -0.000000000000000000, 0.255197077989578247, -0.199020460247993469, -0.000000000000000000, 0.000000000000000000, -0.000000000000000000, -0.000000000000000000, 0.000000000000000000, 0.000000000000000000, 0.186187312006950378, 0.000000000000000000, 0.232179909944534302, 0.000000000000000000, -0.275237202644348145, -0.000000000000000000, -0.000000000000000000, 0.000000000000000000, -0.417329788208007812, -0.000000000000000000, -0.000000000000000000, 0.175435945391654968, -0.240212634205818176, 0.216252654790878296, -0.000000000000000000, 0.000000000000000000, 0.000000000000000000, 0.195136934518814087, 0.000000000000000000, -0.000000000000000000, 0.000000000000000000, -0.000000000000000000, 0.000000000000000000, 0.000000000000000000, -0.000000000000000000, 0.225364148616790771, 0.000000000000000000, -0.215581208467483521, -0.000000000000000000, 0.000000000000000000, 0.187814474105834961, -0.167188614606857300, 0.000000000000000000, -0.095759294927120209, -0.000000000000000000, 0.178896784782409668, 0.000000000000000000, 0.000000000000000000, 0.000000000000000000, -0.069032661616802216, -0.000000000000000000, 0.000000000000000000, -0.321909964084625244, 0.229508206248283386, -0.000000000000000000, 0.000000000000000000, -0.251152038574218750, -0.000000000000000000, -0.226744994521141052, -0.000000000000000000, -0.222549393773078918, 0.000000000000000000, -0.000000000000000000, -0.000000000000000000, 0.339440941810607910, 0.000000000000000000, 0.052454855293035507, -0.191675096750259399, 0.000000000000000000, -0.000000000000000000, 0.000000000000000000, 0.000000000000000000, 0.110036894679069519, 0.280598729848861694, 0.000000000000000000, -0.000000000000000000, 0.202888384461402893, 0.000000000000000000, 0.296734184026718140, 0.000000000000000000, -0.000000000000000000, -0.078470714390277863, 0.000000000000000000, 0.230660900473594666, 0.065393075346946716, 0.000000000000000000, 0.000000000000000000, 0.216217234730720520, -0.000000000000000000, -0.000000000000000000, -0.203748598694801331, 0.180316224694252014, -0.000000000000000000, 0.000000000000000000, 0.000000000000000000, -0.000000000000000000, -0.000000000000000000, 0.000000000000000000, 0.360285669565200806, -0.000000000000000000, -0.186187893152236938, 0.000000000000000000, -0.000000000000000000, -0.000000000000000000, -0.000000000000000000, -0.000000000000000000, -0.000000000000000000, 0.000000000000000000, 0.000000000000000000, -0.000000000000000000, 0.000000000000000000, -0.000000000000000000, 0.175497174263000488, -0.000000000000000000, -0.000000000000000000, -0.194095999002456665, 0.000000000000000000, -0.000000000000000000, -0.000000000000000000, 0.000000000000000000, 0.000000000000000000, 0.228948354721069336, -0.000000000000000000, -0.000000000000000000, 0.000000000000000000, -0.000000000000000000, -0.000000000000000000, -0.245731979608535767, 0.000000000000000000, -0.000000000000000000, 0.000000000000000000, -0.234381243586540222, 0.000000000000000000, -0.000000000000000000, 0.263526022434234619, 0.000000000000000000, -0.000000000000000000, -0.000000000000000000, 0.202002376317977905, 0.000000000000000000, -0.000000000000000000, -0.000000000000000000, 0.000000000000000000, 0.000000000000000000, -0.193024873733520508, -0.000000000000000000, -0.000000000000000000, 0.180348187685012817, 0.000000000000000000, 0.000000000000000000, 0.000000000000000000, -0.000000000000000000, -0.000000000000000000, -0.000000000000000000, -0.205600798130035400, -0.179094716906547546, -0.000000000000000000, 0.204698964953422546, 0.000000000000000000, 0.206426098942756653, 0.000000000000000000, 0.000000000000000000, 0.000000000000000000, 0.000000000000000000, 0.000000000000000000, -0.215218633413314819, 0.000000000000000000, -0.000000000000000000, -0.000000000000000000, -0.000000000000000000, 0.000000000000000000, 0.000000000000000000, -0.000000000000000000, 0.976225316524505615, 0.000000000000000000, -0.210059210658073425, 0.000000000000000000, 0.192671597003936768, -0.000000000000000000, -0.000000000000000000, 0.000000000000000000, 0.000000000000000000, -0.000000000000000000, 0.000000000000000000, 0.000000000000000000, 0.000000000000000000, 0.254679262638092041, 0.000000000000000000, 0.000000000000000000, -0.190398201346397400, 0.219679638743400574, 0.000000000000000000, 0.317109555006027222, 0.000000000000000000, 0.000000000000000000, -0.000000000000000000, 0.000000000000000000, -0.000000000000000000, 0.000000000000000000, 0.000000000000000000, -0.117646299302577972, 0.091538682579994202, 0.000000000000000000, 0.063339747488498688, 0.000000000000000000, 0.126197546720504761, 0.000000000000000000, 0.000000000000000000, -0.192150786519050598, 0.046191424131393433, 0.000000000000000000, 0.000000000000000000, -0.255726516246795654, 0.000000000000000000, -0.000000000000000000, -0.000000000000000000, 0.188747689127922058, 0.000000000000000000, -0.000000000000000000, -0.173020690679550171, 0.193739652633666992, 0.201641499996185303, -0.000000000000000000, -0.000000000000000000, -0.166317090392112732, 0.176320582628250122, 0.394424378871917725, -0.232051104307174683, -0.000000000000000000, 0.000000000000000000, -0.233088940382003784, -0.000000000000000000, 0.000000000000000000, -0.000000000000000000, -0.000000000000000000, 0.476089358329772949, 0.000000000000000000, 0.000000000000000000, -0.000000000000000000, -0.262972742319107056, 0.000000000000000000, 0.000000000000000000, 0.000000000000000000, -0.000000000000000000, 0.000000000000000000, -0.194142669439315796, 0.227282404899597168, -0.000000000000000000, 0.000000000000000000, -0.000000000000000000, 0.000000000000000000, -0.000000000000000000, 0.000000000000000000, -0.000000000000000000, 0.000000000000000000, -0.000000000000000000, 0.000000000000000000, 0.249083861708641052, -0.174645617604255676, 0.000000000000000000, 0.241082519292831421, -0.000000000000000000, -0.251442730426788330, 0.000000000000000000, -0.133466541767120361, -0.274287343025207520, 0.000000000000000000, -0.000000000000000000, 0.198471516370773315, -0.979807794094085693, -0.175815925002098083, 0.000000000000000000, -0.000000000000000000, 0.000000000000000000, 0.171062722802162170, -0.185712605714797974, -0.016267148777842522, 0.000000000000000000, -0.227079361677169800, -0.000000000000000000, -0.241374179720878601, -0.000000000000000000, 0.000000000000000000, 0.000000000000000000, -0.000000000000000000, 0.000000000000000000, 0.000000000000000000, 0.182941526174545288, -0.191670715808868408, 0.000000000000000000, -0.000000000000000000, 0.000000000000000000, 0.245491832494735718, -0.000000000000000000, 0.199552893638610840, -0.236795976758003235, 0.156657159328460693, -0.517652273178100586, -0.206767275929450989, -0.000000000000000000, -0.000000000000000000, 0.006834670901298523, -0.000000000000000000, -0.200328677892684937, -0.000000000000000000, 0.000000000000000000, 0.000000000000000000, 0.000000000000000000, 0.000000000000000000, 0.000000000000000000, 0.000000000000000000, -0.000000000000000000, 0.176467686891555786, -0.000000000000000000, 0.000000000000000000, 0.000000000000000000, -0.000000000000000000, 0.000000000000000000, 0.000000000000000000, -0.181158766150474548, 0.083517909049987793, 0.000000000000000000, 0.399846136569976807, -0.000000000000000000, 0.000000000000000000, -0.000000000000000000, -0.198231846094131470, 0.000000000000000000, -0.000000000000000000, 0.000000000000000000, -0.000000000000000000, 0.000000000000000000, 0.000000000000000000, -0.000000000000000000, 0.000000000000000000, 0.000000000000000000, -0.181255728006362915, -0.000000000000000000, -0.000000000000000000, 0.221038147807121277, 0.469521820545196533, 0.000000000000000000, -0.177757069468498230, 0.000000000000000000, 0.183881208300590515, -0.000000000000000000, -0.235046491026878357, -0.197435319423675537, -0.000000000000000000, 0.000000000000000000, -0.000000000000000000, 0.000000000000000000, -0.000000000000000000, -0.190890565514564514, 0.000000000000000000, -0.000000000000000000, 0.000000000000000000, 0.000000000000000000, -0.000000000000000000, 0.000000000000000000, 0.000000000000000000, -0.472739130258560181, -0.000000000000000000, -0.000000000000000000, 0.000000000000000000, -0.000000000000000000, 0.000000000000000000, -0.000000000000000000, -0.181984290480613708, 0.000000000000000000, 0.000000000000000000, 0.000000000000000000, 0.000000000000000000, -0.000000000000000000, 0.000000000000000000, 0.000000000000000000, -0.000000000000000000, 0.000000000000000000, -0.000000000000000000, -0.000000000000000000, -0.000000000000000000, -0.000000000000000000, 0.000000000000000000, 0.000000000000000000, 0.000000000000000000, -0.000000000000000000, -0.000000000000000000, 0.000000000000000000, -0.219575718045234680, 0.191078558564186096, -0.000000000000000000, -0.000000000000000000, 0.127208054065704346, 0.206193685531616211, -0.000000000000000000, -0.027200438082218170, -0.218971848487854004, -0.140831798315048218, -0.052202492952346802, -0.000000000000000000, -0.000000000000000000, -0.280915170907974243, -0.553453266620635986, 0.000000000000000000, 0.021209562197327614, -0.000000000000000000, 0.000000000000000000, 0.000000000000000000, -0.000000000000000000, 0.000000000000000000, 0.198291137814521790, -0.000000000000000000, 0.000000000000000000, -0.194451525807380676, 0.000000000000000000, -0.000000000000000000, -0.000000000000000000, 0.205505400896072388, -0.000000000000000000, 0.253115624189376831, 0.000000000000000000, -0.193193197250366211, 0.000000000000000000, 0.000000000000000000, -0.000000000000000000, -0.000000000000000000, -0.182924002408981323, 0.000000000000000000, -0.240587815642356873, -0.000000000000000000, 0.000000000000000000, 0.000000000000000000, -0.000000000000000000, -0.000000000000000000, -0.000000000000000000, 0.000000000000000000, 0.000000000000000000, 0.235982701182365417, 0.000000000000000000, -0.232200488448143005, -0.000000000000000000, -0.178749024868011475, 0.000000000000000000, 0.000000000000000000, -0.000000000000000000, 0.000000000000000000, 0.000000000000000000, -0.000000000000000000, 0.000000000000000000, 0.000000000000000000, 0.000000000000000000, 0.000000000000000000, -0.000000000000000000, 0.221877440810203552, -0.000000000000000000, -0.000000000000000000, -0.183105960488319397, -0.414560109376907349, -0.000000000000000000, -0.000000000000000000, 0.000000000000000000, 0.103550717234611511, 0.000000000000000000, -0.171471402049064636, 0.220368951559066772, -0.007827044464647770, -0.000000000000000000, 0.216839596629142761, 0.000000000000000000, 0.000000000000000000, -0.000000000000000000, -0.000000000000000000, 0.000000000000000000, -0.249585911631584167, -0.000000000000000000, 0.000000000000000000, 0.000000000000000000, -0.221343070268630981, 0.196622654795646667, -0.000000000000000000, -1.068632602691650391, 0.000000000000000000, -0.174478963017463684, -0.000000000000000000, -0.000000000000000000, 0.000000000000000000, 0.177962809801101685, -0.189072176814079285, -0.000000000000000000, 0.371076285839080811, -0.000000000000000000, -0.000000000000000000, -0.222443595528602600, -0.000000000000000000, 0.000000000000000000, -0.199606284499168396, 0.000000000000000000, -0.000000000000000000, -0.186721190810203552, -0.000000000000000000, 0.000000000000000000, -0.000000000000000000, -0.213691785931587219, 0.000000000000000000, 0.000000000000000000, 0.000000000000000000, 0.000000000000000000, -0.000000000000000000, 0.000000000000000000, -0.000000000000000000, 0.000000000000000000, 0.000000000000000000, 0.000000000000000000, -0.000000000000000000, 0.000000000000000000, -0.178262963891029358, -0.000000000000000000, 0.000000000000000000, -0.225978225469589233, -0.000000000000000000, -0.000000000000000000, -0.000000000000000000, -0.000000000000000000, 0.105877175927162170, 0.207879438996315002, 0.000000000000000000, -0.000000000000000000, -0.000000000000000000, -0.000000000000000000, 0.371784597635269165, -0.000000000000000000, -0.000000000000000000, -0.000000000000000000, -0.181607693433761597, 0.000000000000000000, 0.000000000000000000, -0.000000000000000000, -0.000000000000000000, -0.000000000000000000, -0.000000000000000000, 0.000000000000000000, -0.000000000000000000, 0.000000000000000000, 0.226729422807693481, -0.000000000000000000, -0.000000000000000000, -0.000000000000000000, -0.223381325602531433, -0.000000000000000000, 0.000000000000000000, -0.253108620643615723, -0.193168222904205322, 0.000000000000000000, -0.000000000000000000, -0.231826797127723694, -0.160350590944290161, -0.000000000000000000, 0.000000000000000000, 0.572238326072692871, -0.000000000000000000, -0.238166913390159607, 0.000000000000000000, -0.000000000000000000, -0.214588910341262817, -0.000000000000000000, -0.000000000000000000, 0.000000000000000000, -0.223011001944541931, 0.171104982495307922, 0.000000000000000000, -0.000000000000000000, -0.000000000000000000, 0.000000000000000000, -0.000000000000000000, 0.000000000000000000, -0.000000000000000000, 0.571932435035705566, -0.000000000000000000, -0.000000000000000000, 0.000000000000000000, -0.000000000000000000, 0.000000000000000000, 0.186188399791717529, -0.000000000000000000, -0.698151230812072754, -0.800159931182861328, -0.000000000000000000, -0.205866739153862000, -0.000000000000000000, -0.255357533693313599, -0.227520316839218140, -0.000000000000000000, -0.000000000000000000, -0.247310027480125427, 0.000000000000000000, 0.232915103435516357, -0.118121474981307983, 0.228629320859909058, 0.220535025000572205, 0.000000000000000000, -0.000000000000000000, 0.000000000000000000, -0.000000000000000000, -0.202540248632431030, -0.236131489276885986, -0.261742144823074341, 0.000000000000000000, 0.185555711388587952, 0.516676962375640869, 0.197769433259963989, 0.082188628613948822, -0.000000000000000000, -0.197780221700668335, -0.000000000000000000, 0.000000000000000000, 0.000000000000000000, -0.756577730178833008, -0.183532536029815674, 0.000000000000000000, -0.078379929065704346, 0.187109977006912231, -0.000000000000000000, -0.000000000000000000, -0.000000000000000000, 0.210774347186088562, -0.000000000000000000, 0.000000000000000000, 0.000000000000000000, 0.000000000000000000, -0.000000000000000000, 0.000000000000000000, 0.000000000000000000, -0.000000000000000000, 0.000000000000000000, -0.176360994577407837, -0.000000000000000000, 0.000000000000000000, 0.174220860004425049, -0.000000000000000000, 0.211431443691253662, 0.000000000000000000, 0.000000000000000000, 0.000000000000000000, -0.000000000000000000, -0.000000000000000000, 0.000000000000000000, -0.000000000000000000, -0.000000000000000000, -0.000000000000000000, -0.000000000000000000, -0.000000000000000000, 0.000000000000000000, 0.000000000000000000, -0.000000000000000000, 0.000000000000000000, -0.000000000000000000, 0.000000000000000000, -0.000000000000000000, -0.000000000000000000, 0.229201748967170715, 0.000000000000000000, -0.000000000000000000, -0.252596616744995117, 0.000000000000000000, 0.000000000000000000, 0.206237405538558960, -0.000000000000000000, -0.000000000000000000, 0.000000000000000000, -0.228683397173881531, 0.178060129284858704, 0.000000000000000000, 0.000000000000000000, -0.000000000000000000, 0.000000000000000000, -0.233808979392051697, 0.248763769865036011, -0.000000000000000000, 0.000000000000000000, -0.000000000000000000, 0.000000000000000000, 0.221352830529212952, -0.000000000000000000, 0.000000000000000000, -0.223940968513488770, -0.000000000000000000, 0.000000000000000000, 0.171642750501632690, 0.000000000000000000, -0.000000000000000000, -0.000000000000000000, -0.000000000000000000, 0.000000000000000000, -0.000000000000000000, -0.000000000000000000, 0.000000000000000000, 0.000000000000000000, 0.000000000000000000, 0.210434317588806152, -0.000000000000000000, 0.000000000000000000, 0.203652963042259216, -0.000000000000000000, 0.000000000000000000, 0.434511333703994751, -0.000000000000000000, -0.000000000000000000, 0.200419828295707703, -0.000000000000000000, 0.000000000000000000, -0.000000000000000000, -0.000000000000000000, -0.000000000000000000, -0.000000000000000000, -0.000000000000000000, 0.000000000000000000, 0.000000000000000000, -0.000000000000000000, 0.000000000000000000, -0.000000000000000000, 0.211022019386291504, -0.000000000000000000, -0.000000000000000000, 0.000000000000000000, 0.000000000000000000, -0.000000000000000000, -0.236313894391059875, 0.219661921262741089, 0.226368218660354614, -0.224597781896591187, -0.189485758543014526, -0.000000000000000000, -0.206724405288696289, -0.000000000000000000, -0.202436834573745728, -0.195752531290054321, 0.000000000000000000, -0.000000000000000000, 0.000000000000000000, -0.000000000000000000, 0.000000000000000000, -0.000000000000000000, -0.188531532883644104, 0.000000000000000000, -0.000000000000000000, -0.000000000000000000, 0.000000000000000000, 0.000000000000000000, -0.000000000000000000, -0.000000000000000000, 0.000000000000000000, 0.000000000000000000, 0.000000000000000000, -0.000000000000000000, -0.000000000000000000, 0.000000000000000000, 0.000000000000000000, -0.187634319067001343, -0.202198117971420288, 0.235451206564903259, -0.000000000000000000, -0.260514020919799805, -0.000000000000000000, -0.000000000000000000, -0.000000000000000000, -0.000000000000000000, 0.209687322378158569, 0.000000000000000000, 0.000000000000000000, 0.215953588485717773, 0.000000000000000000, -0.214042067527770996, -0.000000000000000000, 0.000000000000000000, -0.000000000000000000, -0.000000000000000000, 0.000000000000000000, 0.000000000000000000, -0.000000000000000000, 0.000000000000000000, 0.000000000000000000, 0.000000000000000000, -0.000000000000000000, 0.220423638820648193, 0.175252601504325867, -0.000000000000000000, 0.176736459136009216, -0.000000000000000000, -0.893178820610046387, 0.245421707630157471, -0.000000000000000000, -0.177544862031936646, 0.000000000000000000, 0.000000000000000000, 0.238002896308898926, -0.000000000000000000, 0.000000000000000000, -0.000000000000000000, -0.000000000000000000, 0.237010419368743896, -0.000000000000000000, -0.000000000000000000, -0.026383109390735626, -0.000000000000000000, -0.236850038170814514, 0.000000000000000000, -0.000000000000000000, -0.000000000000000000, -0.087080657482147217, 0.000000000000000000, -0.000000000000000000, 0.025118308141827583, 0.000000000000000000, 0.000000000000000000, -0.745428085327148438, -0.199702069163322449, 0.000000000000000000, 0.018733061850070953, -0.635982453823089600, -0.190954193472862244, -0.047952819615602493, -0.215995639562606812, -0.246243372559547424, 0.186827063560485840, 0.000000000000000000, 0.000000000000000000, -0.000000000000000000, -0.000000000000000000, 0.000000000000000000, -0.185326099395751953, -0.000000000000000000, 0.000000000000000000, -0.000000000000000000, -0.000000000000000000, -0.107022874057292938, -0.000000000000000000, 0.000000000000000000, 0.216811940073966980, -0.000000000000000000, 0.000000000000000000, -0.000000000000000000, 0.000000000000000000, -0.000000000000000000, 0.000000000000000000, 0.000000000000000000, -0.000000000000000000, 0.000000000000000000, 0.000000000000000000, 0.000000000000000000, -0.630276083946228027, -0.000000000000000000, -0.000000000000000000, -0.203536748886108398, -0.174334853887557983, -0.000000000000000000, 0.000000000000000000, 0.000000000000000000, -0.217065587639808655, -0.000000000000000000, -0.000000000000000000, -0.000000000000000000, -0.000000000000000000, -0.000000000000000000, 0.000000000000000000, -0.000000000000000000, -0.000000000000000000, -0.000000000000000000, -0.225084722042083740, 0.000000000000000000, 0.241962909698486328, 0.000000000000000000, 0.000000000000000000, -0.000000000000000000, -0.305030554533004761, 0.000000000000000000, -0.000000000000000000, -0.000000000000000000, -0.000000000000000000, 0.000000000000000000, 0.000000000000000000, -0.000000000000000000, -0.000000000000000000, -0.000000000000000000, 0.000000000000000000, 0.000000000000000000, 0.000000000000000000, -0.241574272513389587, 0.000000000000000000, 0.000000000000000000, 0.000000000000000000, 0.000000000000000000, 0.000000000000000000, -0.000000000000000000, -0.000000000000000000, 0.185038059949874878, 0.000000000000000000, 0.000000000000000000, 0.240388512611389160, 0.000000000000000000, -0.228382349014282227, 0.000000000000000000, -0.000000000000000000, -0.000000000000000000, -0.000000000000000000, 0.285127252340316772, 0.000000000000000000, 0.000000000000000000, -0.245227217674255371, -0.000000000000000000, -0.000000000000000000, 0.000000000000000000, 0.000000000000000000, 0.000000000000000000, -0.000000000000000000, -0.082584336400032043, 0.196612134575843811, -0.000000000000000000, -0.000000000000000000, 0.000000000000000000, -0.000000000000000000, 0.213098853826522827, -0.226405501365661621, 0.000000000000000000, 0.177253201603889465, 0.000000000000000000, -0.000000000000000000, -0.000000000000000000, 0.233866751194000244, 0.000000000000000000, 0.000000000000000000, 0.000000000000000000, 0.210988193750381470, -0.000000000000000000, 0.208200663328170776, -0.000000000000000000, 0.000000000000000000, 0.000000000000000000, -0.000000000000000000, 0.000000000000000000, 0.617445945739746094, -0.000000000000000000, -0.097763374447822571, 0.111322455108165741, -0.000000000000000000, -0.000000000000000000, -0.031895201653242111, 0.000000000000000000, 0.187269374728202820, -0.000000000000000000, 0.195747658610343933, -0.209832340478897095, -0.000000000000000000, 0.173394829034805298, -0.000000000000000000, -0.000000000000000000, 0.000000000000000000, 0.000000000000000000, 0.000000000000000000, 0.000000000000000000, -0.000000000000000000, -0.000000000000000000, 0.000000000000000000, -0.000000000000000000, -0.000000000000000000, 0.000000000000000000, 0.000000000000000000, -0.000000000000000000, 0.000000000000000000, -0.000000000000000000, 0.373827636241912842, 0.000000000000000000, -0.000000000000000000, -0.000000000000000000, 0.000000000000000000, -0.000000000000000000, -0.000000000000000000, -0.000000000000000000, 0.000000000000000000, 0.091176122426986694, -0.215969309210777283, -0.000000000000000000, -0.000000000000000000, 0.000000000000000000, 0.000000000000000000, -0.000000000000000000, 0.211870416998863220, -0.000000000000000000, -0.182933703064918518, -0.000000000000000000, 0.190380483865737915, 0.000000000000000000, -0.000000000000000000, -0.000000000000000000, -0.000000000000000000, 0.059791449457406998, 0.000000000000000000, 0.188041120767593384, -0.000000000000000000, 0.201663106679916382, 0.000000000000000000, -0.000000000000000000, -0.000000000000000000, 0.000000000000000000, -0.000000000000000000, 0.172823235392570496, 0.033952254801988602, -0.000000000000000000, 0.000000000000000000, -0.000000000000000000, 0.000000000000000000, 0.000000000000000000, 0.179025575518608093, -0.023998407647013664, -0.175913825631141663, -0.210174933075904846, -0.000000000000000000, -0.000000000000000000, -0.000000000000000000, 0.000000000000000000, 0.000000000000000000, -0.000000000000000000, 0.000000000000000000, 0.260871678590774536, 0.196572959423065186, -0.118317872285842896, 0.251022607088088989, -0.418204724788665771, 0.240386798977851868, -0.000000000000000000, -0.000000000000000000, 0.218797296285629272, 0.184812188148498535, -0.140018835663795471, -0.000000000000000000, -0.000000000000000000, -0.000000000000000000, 0.233556285500526428, -0.155858069658279419, 0.000000000000000000, 0.000000000000000000, 0.000000000000000000, -0.000000000000000000, -0.000000000000000000, -0.000000000000000000, 0.285812824964523315, 0.000000000000000000, -0.000000000000000000, -0.000000000000000000, 0.000000000000000000, -0.218877702951431274, 0.000000000000000000, -0.183982476592063904, 0.000000000000000000, 0.000000000000000000, 0.000000000000000000, -0.000000000000000000, 0.000000000000000000, 0.000000000000000000, 0.000000000000000000, -0.000000000000000000, -0.228666648268699646, 0.209737509489059448, -0.000000000000000000, -0.000000000000000000, 0.000000000000000000, 0.000000000000000000, -0.000000000000000000, -0.000000000000000000, 0.000000000000000000, 0.000000000000000000, -0.000000000000000000, -0.000000000000000000, -0.193415805697441101, 0.000000000000000000, 0.000000000000000000, -0.000000000000000000, -0.000000000000000000, -0.000000000000000000, -0.000000000000000000, -0.184425368905067444, 0.000000000000000000, 0.245323643088340759, -0.000000000000000000, -0.234775230288505554, 0.000000000000000000, -0.000000000000000000, -0.000000000000000000, 0.173619866371154785, -0.000000000000000000, -0.000000000000000000, -0.000000000000000000, 0.238337501883506775, 0.000000000000000000, -0.000000000000000000, 0.000000000000000000, 0.228187978267669678, 0.000000000000000000, 0.000000000000000000, 0.000000000000000000, -0.000000000000000000, -0.000000000000000000, 0.000000000000000000, -0.000000000000000000, 0.000000000000000000, 0.234081819653511047, 0.058645669370889664, 0.000000000000000000, -0.252960532903671265, -0.058461029082536697, 0.211421310901641846, 0.251156747341156006, -0.200278118252754211, -0.000000000000000000, -0.000000000000000000, 0.000000000000000000, 0.000000000000000000, -0.000000000000000000, 0.000000000000000000, 0.000000000000000000, -0.000000000000000000, 0.153308913111686707, 0.191145315766334534, -0.482528150081634521, -0.000000000000000000, 0.000000000000000000, -0.251144528388977051, 0.187834128737449646, 0.214819192886352539, 0.000000000000000000, -0.000000000000000000, 0.000000000000000000, -0.170557662844657898, -0.000000000000000000, -0.000000000000000000, -0.503161370754241943, 0.000000000000000000, 0.000000000000000000, 0.000000000000000000, 0.000000000000000000, -0.000000000000000000, 0.000000000000000000, 0.000000000000000000, -0.227187305688858032, -0.000000000000000000, 0.000000000000000000, -0.000000000000000000, 0.207772031426429749, -0.227293938398361206, 0.000000000000000000, 0.000000000000000000, -0.000000000000000000, -0.191074907779693604, 0.000000000000000000, 0.000000000000000000, 0.000000000000000000};
#endif

#endif
